17.690079139430768 -1.9763551316951156 0.23564532330818508 0.26958954222345266 15.63562965294691 -13.416898173461696 -1.5741411471887745 -0.0511638863080384 -3.017799260918222 1.112427561057793 
-2.0919917463265505 -0.4850150970919491 -4.94727502323091 -3.4823669588373174 -3.437769140818569 -5.555919469294217 -3.1942536852624257 -1.507411781468817 0.26679835633645727 -0.631908674479897 -0.40422830751797956 1.3161253870485075 -2.3684588577435135 2.6950192795164463 -3.3233564165051073 2.3598480375346043 -1.0665528577908845 0.46107244951951215 -3.3077621894359566 -3.676421823283441 3.192461318296228 3.5997251754200184 -2.5458285163374987 1.5008825439955993 3.8346474997880478 4.161441394262752 -3.589561088846978 -3.3770450346098753 -2.7780812613767147 4.359848433419595 -3.6130002631071734 -0.48031550941065154 4.611192148815352 3.1280745732685884 0.4216614802425408 2.735430624749667 0.8509549769852278 2.9967899112493424 0.5172231041507483 2.3260469518843294 4.602112397160792 2.9769881421911917 1.402529175450518 3.7805389790241475 -2.1743034575877984 1.2614397244685525 6.008948769461562 -1.796224984189828 -1.582024850216404 -4.032491869327515 -4.8853194837206 0.2465737634935268 -2.9252996611548236 -1.6470948030795947 -2.2118443200005 -4.786906130466673 1.6013037607902993 -2.3301324276658555 1.5202316675558551 2.5150935494685807 -4.05009945722757 -0.8823715732312235 -0.4417517672404809 -1.3953118689754906 -1.7175736758943896 0.9760637327415589 -0.21263358511819064 -0.9934462119234785 2.921287210637809 -1.0439272202982401 2.5994025083911207 -3.8723604315881435 -3.496720842517708 1.42105913396633 0.015364489008049464 -1.4747716645906745 4.6564000320836785 -0.03835834502433812 2.3125605764340165 -2.4918391610897745 