11.518542652739633 0.1285184465920887 0.39393779002399565 0.08577369975386402 1.3098864913722694 -2.6950125781623058 -0.20500989443860415 2.1207070089562414 -0.3772688005188285 2.060828485372662 
-1.3268201340805221 0.9875453724700219 -4.977465364061141 -2.767067113802764 -3.481384519614278 -4.745435311184791 -3.3085449396714366 -1.5798597103217382 -1.0295638957953992 0.4030032175455147 -0.6775840791004876 1.8055198792041913 -2.8639332634513357 3.700957557679189 -4.831874899526769 1.633354068407567 -1.080603223100841 0.46360956001930836 -3.4708769303595237 -3.556657857440776 3.133470551159027 3.9081908415040383 -2.4676624153448 1.613286081094238 3.734739853984958 4.060852730054542 -4.033789320665542 -4.537748557383089 -3.2110737978543686 3.8603845948674196 -3.9298064546329523 -0.770293785699567 4.617206118651773 0.6910740428005655 1.4337448740484344 -1.1734886051179192 1.6422938084851257 3.557776860869611 -4.238418094675877 2.515432182770796 4.723157580913494 2.70730077164088 -0.5828016843869264 3.290327121062928 -3.1099911921795993 0.2100800575273323 5.0474813051793275 -1.925543953319561 -2.1759636227899386 -3.7449921666764525 -4.806791045931317 1.6549039201770392 -2.8835228572247007 -2.456453371452894 -0.2471618578529324 -4.4824329184172145 1.0932090105673804 -2.561536305278296 1.5555949134819174 2.168476008579368 -3.4783201312410337 -1.468019017638357 0.8194116122414967 -1.3961913744003203 -4.744175376031252 0.3461560735051763 1.1506816446028063 -0.1088395507378279 4.135636173188022 0.6289777539882047 3.7721749263467017 -3.6905321727271323 -2.345452959820828 3.017126893372609 -1.412736336094441 -2.639645743907388 4.239311107123061 -0.8294784531860734 2.165378000878855 1.505708452710064 